{"learner":{"attributes":{"scikit_learn":"{\"_estimator_type\": \"classifier\"}"},"feature_names":["Gender","Age","Schooling","Breastfeeding","Varicella","Oligoclonal_Bands","LLSSEP","ULSSEP","VEP","BAEP","Periventricular_MRI","Cortical_MRI","Infratentorial_MRI","Spinal_Cord_MRI","Symptom_Vision","Symptom_Sensory","Symptom_Motor","Symptom_Other","Mono_Symptomatic","Poly_Symptomatic"],"feature_types":["float","float","float","float","float","float","float","float","float","float","float","float","float","float","float","float","float","float","float","float"],"gradient_booster":{"model":{"gbtree_model_param":{"num_parallel_tree":"1","num_trees":"100"},"iteration_indptr":[0,1,2,3,4,5,6,7,8,9,10,11,12,13,14,15,16,17,18,19,20,21,22,23,24,25,26,27,28,29,30,31,32,33,34,35,36,37,38,39,40,41,42,43,44,45,46,47,48,49,50,51,52,53,54,55,56,57,58,59,60,61,62,63,64,65,66,67,68,69,70,71,72,73,74,75,76,77,78,79,80,81,82,83,84,85,86,87,88,89,90,91,92,93,94,95,96,97,98,99,100],"tree_info":[0,0,0,0,0,0,0,0,0,0,0,0,0,0,0,0,0,0,0,0,0,0,0,0,0,0,0,0,0,0,0,0,0,0,0,0,0,0,0,0,0,0,0,0,0,0,0,0,0,0,0,0,0,0,0,0,0,0,0,0,0,0,0,0,0,0,0,0,0,0,0,0,0,0,0,0,0,0,0,0,0,0,0,0,0,0,0,0,0,0,0,0,0,0,0,0,0,0,0,0],"trees":[{"base_weights":[3.9623495E-2,-1.0378518E0,1.0092232E0,-5.784083E-1,3.3473474E-1,1.2072903E-1,5.882012E-1],"categories":[],"categories_nodes":[],"categories_segments":[],"categories_sizes":[],"default_left":[0,0,0,0,0,0,0],"id":0,"left_children":[1,3,5,-1,-1,-1,-1],"loss_changes":[5.7491543E1,1.6272436E1,7.2444553E0,0E0,0E0,0E0,0E0],"parents":[2147483647,0,0,1,1,2,2],"right_children":[2,4,6,-1,-1,-1,-1],"split_conditions":[1E0,1E0,1.4E1,-5.784083E-1,3.3473474E-1,1.2072903E-1,5.882012E-1],"split_indices":[10,5,2,0,0,0,0],"split_type":[0,0,0,0,0,0,0],"sum_hessian":[5.309932E1,2.5060894E1,2.8038425E1,2.1587107E1,3.473787E0,1.0173234E1,1.786519E1],"tree_param":{"num_deleted":"0","num_feature":"20","num_nodes":"7","size_leaf_vector":"1"}},{"base_weights":[-1.666223E-2,-7.749197E-1,6.4964557E-1,-4.2927858E-1,1.6156058E-1,8.0700524E-2,4.8797676E-1],"categories":[],"categories_nodes":[],"categories_segments":[],"categories_sizes":[],"default_left":[0,0,0,0,0,0,0],"id":1,"left_children":[1,3,5,-1,-1,-1,-1],"loss_changes":[2.6172396E1,6.964531E0,5.9043884E0,0E0,0E0,0E0,0E0],"parents":[2147483647,0,0,1,1,2,2],"right_children":[2,4,6,-1,-1,-1,-1],"split_conditions":[1E0,1E0,1E0,-4.2927858E-1,1.6156058E-1,8.0700524E-2,4.8797676E-1],"split_indices":[10,5,12,0,0,0,0],"split_type":[0,0,0,0,0,0,0],"sum_hessian":[4.9844944E1,2.3322752E1,2.6522192E1,1.9597013E1,3.7257383E0,1.4568364E1,1.1953828E1],"tree_param":{"num_deleted":"0","num_feature":"20","num_nodes":"7","size_leaf_vector":"1"}},{"base_weights":[-1.9364135E-2,-3.8453963E-1,7.976288E-1,-4.0935332E-1,-6.070363E-4,-2.8172243E-2,4.5743972E-1],"categories":[],"categories_nodes":[],"categories_segments":[],"categories_sizes":[],"default_left":[0,0,0,0,0,0,0],"id":2,"left_children":[1,3,5,-1,-1,-1,-1],"loss_changes":[1.4150667E1,7.161407E0,3.670394E0,0E0,0E0,0E0,0E0],"parents":[2147483647,0,0,1,1,2,2],"right_children":[2,4,6,-1,-1,-1,-1],"split_conditions":[1E0,1.4E1,0E0,-4.0935332E-1,-6.070363E-4,-2.8172243E-2,4.5743972E-1],"split_indices":[12,2,3,0,0,0,0],"split_type":[0,0,0,0,0,0,0],"sum_hessian":[4.563418E1,3.1990515E1,1.3643663E1,1.2070771E1,1.9919743E1,3.3789265E0,1.0264737E1],"tree_param":{"num_deleted":"0","num_feature":"20","num_nodes":"7","size_leaf_vector":"1"}},{"base_weights":[6.2737134E-3,-2.887308E-1,6.0976267E-1,-3.1548592E-1,8.454523E-2,-3.041794E-1,3.6973777E-1],"categories":[],"categories_nodes":[],"categories_segments":[],"categories_sizes":[],"default_left":[0,0,0,0,0,0,0],"id":3,"left_children":[1,3,5,-1,-1,-1,-1],"loss_changes":[7.993416E0,6.785509E0,5.672005E0,0E0,0E0,0E0,0E0],"parents":[2147483647,0,0,1,1,2,2],"right_children":[2,4,6,-1,-1,-1,-1],"split_conditions":[1E0,1E0,0E0,-3.1548592E-1,8.454523E-2,-3.041794E-1,3.6973777E-1],"split_indices":[8,10,4,0,0,0,0],"split_type":[0,0,0,0,0,0,0],"sum_hessian":[4.2765385E1,2.8931612E1,1.3833772E1,1.4876148E1,1.4055464E1,1.9041045E0,1.1929667E1],"tree_param":{"num_deleted":"0","num_feature":"20","num_nodes":"7","size_leaf_vector":"1"}},{"base_weights":[-4.039306E-2,-2.9975665E-1,5.168265E-1,-3.0591664E-1,8.284036E-2,-4.915299E-1,3.550321E-1],"categories":[],"categories_nodes":[],"categories_segments":[],"categories_sizes":[],"default_left":[0,0,0,0,0,0,0],"id":4,"left_children":[1,3,5,-1,-1,-1,-1],"loss_changes":[5.9220676E0,6.011228E0,7.738759E0,0E0,0E0,0E0,0E0],"parents":[2147483647,0,0,1,1,2,2],"right_children":[2,4,6,-1,-1,-1,-1],"split_conditions":[1E0,1E0,0E0,-3.0591664E-1,8.284036E-2,-4.915299E-1,3.550321E-1],"split_indices":[5,6,4,0,0,0,0],"split_type":[0,0,0,0,0,0,0],"sum_hessian":[3.9151962E1,2.7165113E1,1.1986847E1,1.4604754E1,1.2560359E1,1.4429756E0,1.0543872E1],"tree_param":{"num_deleted":"0","num_feature":"20","num_nodes":"7","size_leaf_vector":"1"}},{"base_weights":[-9.201555E-3,-2.3444119E-1,5.044262E-1,-1.8572932E-1,1.1672681E-1,-5.979689E-3,3.4166154E-1],"categories":[],"categories_nodes":[],"categories_segments":[],"categories_sizes":[],"default_left":[0,0,0,0,0,0,0],"id":5,"left_children":[1,3,5,-1,-1,-1,-1],"loss_changes":[4.4290133E0,2.8937128E0,1.892792E0,0E0,0E0,0E0,0E0],"parents":[2147483647,0,0,1,1,2,2],"right_children":[2,4,6,-1,-1,-1,-1],"split_conditions":[1E0,1E0,1E0,-1.8572932E-1,1.1672681E-1,-5.979689E-3,3.4166154E-1],"split_indices":[12,18,16,0,0,0,0],"split_type":[0,0,0,0,0,0,0],"sum_hessian":[3.6604748E1,2.5970201E1,1.0634546E1,1.886356E1,7.106641E0,4.068715E0,6.565831E0],"tree_param":{"num_deleted":"0","num_feature":"20","num_nodes":"7","size_leaf_vector":"1"}},{"base_weights":[1.4489986E-3,-2.4517572E-1,4.4830424E-1,-2.509705E-1,-0E0,-2.569812E-1,3.0680767E-1],"categories":[],"categories_nodes":[],"categories_segments":[],"categories_sizes":[],"default_left":[0,0,0,0,0,0,0],"id":6,"left_children":[1,3,5,-1,-1,-1,-1],"loss_changes":[4.2077007E0,2.0969E0,4.340081E0,0E0,0E0,0E0,0E0],"parents":[2147483647,0,0,1,1,2,2],"right_children":[2,4,6,-1,-1,-1,-1],"split_conditions":[1E0,1E0,0E0,-2.509705E-1,-0E0,-2.569812E-1,3.0680767E-1],"split_indices":[17,16,4,0,0,0,0],"split_type":[0,0,0,0,0,0,0],"sum_hessian":[3.603424E1,2.3330572E1,1.2703669E1,9.286252E0,1.4044319E1,2.2786176E0,1.0425051E1],"tree_param":{"num_deleted":"0","num_feature":"20","num_nodes":"7","size_leaf_vector":"1"}},{"base_weights":[4.956685E-3,-3.3919007E-1,2.6367116E-1,-3.9375842E-1,-1.5502155E-2,-3.315097E-2,3.18568E-1],"categories":[],"categories_nodes":[],"categories_segments":[],"categories_sizes":[],"default_left":[0,0,0,0,0,0,0],"id":7,"left_children":[1,3,5,-1,-1,-1,-1],"loss_changes":[3.1788366E0,2.5427482E0,3.5437813E0,0E0,0E0,0E0,0E0],"parents":[2147483647,0,0,1,1,2,2],"right_children":[2,4,6,-1,-1,-1,-1],"split_conditions":[3E1,1.4E1,1E0,-3.9375842E-1,-1.5502155E-2,-3.315097E-2,3.18568E-1],"split_indices":[1,2,0,0,0,0,0],"split_type":[0,0,0,0,0,0,0],"sum_hessian":[3.3866375E1,1.42094965E1,1.9656876E1,4.03782E0,1.0171677E1,1.1858627E1,7.7982492E0],"tree_param":{"num_deleted":"0","num_feature":"20","num_nodes":"7","size_leaf_vector":"1"}},{"base_weights":[-3.609246E-2,-3.742981E-1,1.668639E-1,-4.0646574E-1,-0E0,-4.9928844E-2,2.1264228E-1],"categories":[],"categories_nodes":[],"categories_segments":[],"categories_sizes":[],"default_left":[0,0,0,0,0,0,0],"id":8,"left_children":[1,3,5,-1,-1,-1,-1],"loss_changes":[2.4606931E0,3.0118995E0,2.1854575E0,0E0,0E0,0E0,0E0],"parents":[2147483647,0,0,1,1,2,2],"right_children":[2,4,6,-1,-1,-1,-1],"split_conditions":[1.4E1,0E0,1E0,-4.0646574E-1,-0E0,-4.9928844E-2,2.1264228E-1],"split_indices":[2,3,11,0,0,0,0],"split_type":[0,0,0,0,0,0,0],"sum_hessian":[3.364831E1,1.2530907E1,2.1117405E1,4.4207807E0,8.1101265E0,1.1530347E1,9.587057E0],"tree_param":{"num_deleted":"0","num_feature":"20","num_nodes":"7","size_leaf_vector":"1"}},{"base_weights":[-2.0270746E-2,-3.5350084E-1,2.0275755E-1,-2.7504066E-1,1.4664431E-1,-9.156458E-2,1.7058429E-1],"categories":[],"categories_nodes":[],"categories_segments":[],"categories_sizes":[],"default_left":[0,0,0,0,0,0,0],"id":9,"left_children":[1,3,5,-1,-1,-1,-1],"loss_changes":[2.5688126E0,3.0931091E0,1.789386E0,0E0,0E0,0E0,0E0],"parents":[2147483647,0,0,1,1,2,2],"right_children":[2,4,6,-1,-1,-1,-1],"split_conditions":[1E0,1E0,2.8E1,-2.7504066E-1,1.4664431E-1,-9.156458E-2,1.7058429E-1],"split_indices":[16,7,1,0,0,0,0],"split_type":[0,0,0,0,0,0,0],"sum_hessian":[3.242814E1,1.2986741E1,1.9441399E1,9.324384E0,3.6623569E0,6.0259705E0,1.3415427E1],"tree_param":{"num_deleted":"0","num_feature":"20","num_nodes":"7","size_leaf_vector":"1"}},{"base_weights":[-6.5757004E-3,-2.2977342E-1,2.733922E-1,-3.4654942E-1,1.1044072E-1,-8.4819734E-2,2.5184235E-1],"categories":[],"categories_nodes":[],"categories_segments":[],"categories_sizes":[],"default_left":[0,0,0,0,0,0,0],"id":10,"left_children":[1,3,5,-1,-1,-1,-1],"loss_changes":[2.1264412E0,5.7477684E0,2.3976278E0,0E0,0E0,0E0,0E0],"parents":[2147483647,0,0,1,1,2,2],"right_children":[2,4,6,-1,-1,-1,-1],"split_conditions":[1E0,1E0,1.4E1,-3.4654942E-1,1.1044072E-1,-8.4819734E-2,2.5184235E-1],"split_indices":[0,10,2,0,0,0,0],"split_type":[0,0,0,0,0,0,0],"sum_hessian":[3.21745E1,1.8232449E1,1.3942049E1,8.129488E0,1.0102962E1,5.6018567E0,8.340193E0],"tree_param":{"num_deleted":"0","num_feature":"20","num_nodes":"7","size_leaf_vector":"1"}},{"base_weights":[7.048181E-4,-2.112655E-1,2.4951732E-1,-2.6070458E-1,1.5129752E-1,-2.308482E-2,3.0973026E-1],"categories":[],"categories_nodes":[],"categories_segments":[],"categories_sizes":[],"default_left":[0,0,0,0,0,0,0],"id":11,"left_children":[1,3,5,-1,-1,-1,-1],"loss_changes":[1.6955125E0,4.111138E0,2.292747E0,0E0,0E0,0E0,0E0],"parents":[2147483647,0,0,1,1,2,2],"right_children":[2,4,6,-1,-1,-1,-1],"split_conditions":[1E0,1E0,1E0,-2.6070458E-1,1.5129752E-1,-2.308482E-2,3.0973026E-1],"split_indices":[15,18,14,0,0,0,0],"split_type":[0,0,0,0,0,0,0],"sum_hessian":[3.0131166E1,1.60936E1,1.4037567E1,9.502134E0,6.5914655E0,8.952839E0,5.0847287E0],"tree_param":{"num_deleted":"0","num_feature":"20","num_nodes":"7","size_leaf_vector":"1"}},{"base_weights":[-0E0,-1.4627372E-1,3.516517E-1,-1.4910342E-1,8.0411166E-2,4.2688176E-2,3.6874893E-1],"categories":[],"categories_nodes":[],"categories_segments":[],"categories_sizes":[],"default_left":[0,0,0,0,0,0,0],"id":12,"left_children":[1,3,5,-1,-1,-1,-1],"loss_changes":[1.6178902E0,1.5740045E0,1.0045857E0,0E0,0E0,0E0,0E0],"parents":[2147483647,0,0,1,1,2,2],"right_children":[2,4,6,-1,-1,-1,-1],"split_conditions":[1E0,1E0,4E1,-1.4910342E-1,8.0411166E-2,4.2688176E-2,3.6874893E-1],"split_indices":[12,7,1,0,0,0,0],"split_type":[0,0,0,0,0,0,0],"sum_hessian":[2.9223965E1,2.088769E1,8.336275E0,1.3181298E1,7.706391E0,6.5259595E0,1.8103158E0],"tree_param":{"num_deleted":"0","num_feature":"20","num_nodes":"7","size_leaf_vector":"1"}},{"base_weights":[1.2701057E-2,-3.0721724E-1,1.7783079E-1,-3.1015232E-1,-0E0,-6.376783E-2,1.375098E-1],"categories":[],"categories_nodes":[],"categories_segments":[],"categories_sizes":[],"default_left":[0,0,0,0,0,0,0],"id":13,"left_children":[1,3,5,-1,-1,-1,-1],"loss_changes":[1.6055691E0,1.2929535E0,1.0367109E0,0E0,0E0,0E0,0E0],"parents":[2147483647,0,0,1,1,2,2],"right_children":[2,4,6,-1,-1,-1,-1],"split_conditions":[0E0,1.4E1,2.8E1,-3.1015232E-1,-0E0,-6.376783E-2,1.375098E-1],"split_indices":[3,2,1,0,0,0,0],"split_type":[0,0,0,0,0,0,0],"sum_hessian":[2.8715477E1,9.250416E0,1.9465061E1,3.2934487E0,5.9569674E0,5.71241E0,1.3752652E1],"tree_param":{"num_deleted":"0","num_feature":"20","num_nodes":"7","size_leaf_vector":"1"}},{"base_weights":[3.5347233E-3,-1.3321388E-1,2.7334628E-1,-3.4553215E-3,-2.453608E-1,-1.9213009E-1,1.9412307E-1],"categories":[],"categories_nodes":[],"categories_segments":[],"categories_sizes":[],"default_left":[0,0,0,0,0,0,0],"id":14,"left_children":[1,3,5,-1,-1,-1,-1],"loss_changes":[1.1524526E0,1.0432541E0,1.6039126E0,0E0,0E0,0E0,0E0],"parents":[2147483647,0,0,1,1,2,2],"right_children":[2,4,6,-1,-1,-1,-1],"split_conditions":[1E0,4.3E1,0E0,-3.4553215E-3,-2.453608E-1,-1.9213009E-1,1.9412307E-1],"split_indices":[17,1,4,0,0,0,0],"split_type":[0,0,0,0,0,0,0],"sum_hessian":[2.8868763E1,1.9193842E1,9.67492E0,1.5938809E1,3.2550323E0,1.5292721E0,8.145648E0],"tree_param":{"num_deleted":"0","num_feature":"20","num_nodes":"7","size_leaf_vector":"1"}},{"base_weights":[-0E0,-2.1945882E-1,1.4941408E-1,-1.9990727E-1,5.7847712E-2,-5.9136566E-2,1.3514504E-1],"categories":[],"categories_nodes":[],"categories_segments":[],"categories_sizes":[],"default_left":[0,0,0,0,0,0,0],"id":15,"left_children":[1,3,5,-1,-1,-1,-1],"loss_changes":[9.93456E-1,1.1989102E0,9.241425E-1,0E0,0E0,0E0,0E0],"parents":[2147483647,0,0,1,1,2,2],"right_children":[2,4,6,-1,-1,-1,-1],"split_conditions":[1E0,1E0,1.4E1,-1.9990727E-1,5.7847712E-2,-5.9136566E-2,1.3514504E-1],"split_indices":[16,15,2,0,0,0,0],"split_type":[0,0,0,0,0,0,0],"sum_hessian":[2.8242804E1,1.1411959E1,1.6830847E1,6.713358E0,4.6986003E0,5.9963975E0,1.0834449E1],"tree_param":{"num_deleted":"0","num_feature":"20","num_nodes":"7","size_leaf_vector":"1"}},{"base_weights":[-5.923515E-4,-2.310152E-1,1.6315787E-1,-2.4172139E-1,5.959692E-2,-1.9034993E-2,2.0453243E-1],"categories":[],"categories_nodes":[],"categories_segments":[],"categories_sizes":[],"default_left":[0,0,0,0,0,0,0],"id":16,"left_children":[1,3,5,-1,-1,-1,-1],"loss_changes":[1.1121763E0,1.6805782E0,1.1791457E0,0E0,0E0,0E0,0E0],"parents":[2147483647,0,0,1,1,2,2],"right_children":[2,4,6,-1,-1,-1,-1],"split_conditions":[3E1,1E0,1E0,-2.4172139E-1,5.959692E-2,-1.9034993E-2,2.0453243E-1],"split_indices":[1,11,0,0,0,0,0],"split_type":[0,0,0,0,0,0,0],"sum_hessian":[2.7333324E1,1.1488576E1,1.58447485E1,5.923015E0,5.5655603E0,9.84603E0,5.9987183E0],"tree_param":{"num_deleted":"0","num_feature":"20","num_nodes":"7","size_leaf_vector":"1"}},{"base_weights":[3.2489605E-3,-1.8761964E-1,1.2146161E-1,-2.0831934E-1,6.360111E-2,-2.7603442E-2,1.6166963E-1],"categories":[],"categories_nodes":[],"categories_segments":[],"categories_sizes":[],"default_left":[0,0,0,0,0,0,0],"id":17,"left_children":[1,3,5,-1,-1,-1,-1],"loss_changes":[6.512079E-1,1.2064807E0,9.449367E-1,0E0,0E0,0E0,0E0],"parents":[2147483647,0,0,1,1,2,2],"right_children":[2,4,6,-1,-1,-1,-1],"split_conditions":[1.4E1,1E0,1E0,-2.0831934E-1,6.360111E-2,-2.7603442E-2,1.6166963E-1],"split_indices":[2,15,0,0,0,0,0],"split_type":[0,0,0,0,0,0,0],"sum_hessian":[2.726491E1,9.83037E0,1.743454E1,5.1432815E0,4.6870885E0,1.0280442E1,7.154097E0],"tree_param":{"num_deleted":"0","num_feature":"20","num_nodes":"7","size_leaf_vector":"1"}},{"base_weights":[-1.662718E-2,-2.4926817E-1,8.430152E-2,-1.9099297E-1,1.0712122E-1,-2.109543E-2,1.7222038E-1],"categories":[],"categories_nodes":[],"categories_segments":[],"categories_sizes":[],"default_left":[0,0,0,0,0,0,0],"id":18,"left_children":[1,3,5,-1,-1,-1,-1],"loss_changes":[6.9866973E-1,1.0376427E0,9.1479063E-1,0E0,0E0,0E0,0E0],"parents":[2147483647,0,0,1,1,2,2],"right_children":[2,4,6,-1,-1,-1,-1],"split_conditions":[0E0,1E0,1E0,-1.9099297E-1,1.0712122E-1,-2.109543E-2,1.7222038E-1],"split_indices":[3,18,8,0,0,0,0],"split_type":[0,0,0,0,0,0,0],"sum_hessian":[2.7098816E1,8.12238E0,1.8976435E1,6.052646E0,2.0697336E0,1.3696368E1,5.2800674E0],"tree_param":{"num_deleted":"0","num_feature":"20","num_nodes":"7","size_leaf_vector":"1"}},{"base_weights":[2.9701279E-3,-1.7932466E-1,1.383003E-1,-1.6110192E-1,8.288615E-2,-5.745669E-3,1.9877723E-1],"categories":[],"categories_nodes":[],"categories_segments":[],"categories_sizes":[],"default_left":[0,0,0,0,0,0,0],"id":19,"left_children":[1,3,5,-1,-1,-1,-1],"loss_changes":[6.942426E-1,9.629933E-1,8.875327E-1,0E0,0E0,0E0,0E0],"parents":[2147483647,0,0,1,1,2,2],"right_children":[2,4,6,-1,-1,-1,-1],"split_conditions":[1E0,1E0,1E0,-1.6110192E-1,8.288615E-2,-5.745669E-3,1.9877723E-1],"split_indices":[16,7,14,0,0,0,0],"split_type":[0,0,0,0,0,0,0],"sum_hessian":[2.6399683E1,1.0743955E1,1.5655728E1,7.212448E0,3.5315063E0,1.109383E1,4.5618978E0],"tree_param":{"num_deleted":"0","num_feature":"20","num_nodes":"7","size_leaf_vector":"1"}},{"base_weights":[-3.5734314E-2,-1.4692403E-1,2.0041327E-1,-2.25409E-1,1.594704E-2,2.1245572E-1,-5.621985E-2],"categories":[],"categories_nodes":[],"categories_segments":[],"categories_sizes":[],"default_left":[0,0,0,0,0,0,0],"id":20,"left_children":[1,3,5,-1,-1,-1,-1],"loss_changes":[7.2697437E-1,1.4257618E0,9.6542656E-1,0E0,0E0,0E0,0E0],"parents":[2147483647,0,0,1,1,2,2],"right_children":[2,4,6,-1,-1,-1,-1],"split_conditions":[1E0,2.8E1,1E0,-2.25409E-1,1.594704E-2,2.1245572E-1,-5.621985E-2],"split_indices":[18,1,3,0,0,0,0],"split_type":[0,0,0,0,0,0,0],"sum_hessian":[2.5877016E1,1.8180056E1,7.6969604E0,5.5361986E0,1.2643857E1,3.9885275E0,3.708433E0],"tree_param":{"num_deleted":"0","num_feature":"20","num_nodes":"7","size_leaf_vector":"1"}},{"base_weights":[-2.1627929E-2,-1.4807037E-1,2.1952866E-1,-2.807921E-2,-3.0758908E-1,-4.498346E-3,3.4069607E-1],"categories":[],"categories_nodes":[],"categories_segments":[],"categories_sizes":[],"default_left":[0,0,0,0,0,0,0],"id":21,"left_children":[1,3,5,-1,-1,-1,-1],"loss_changes":[8.381882E-1,7.306443E-1,1.3376365E0,0E0,0E0,0E0,0E0],"parents":[2147483647,0,0,1,1,2,2],"right_children":[2,4,6,-1,-1,-1,-1],"split_conditions":[1E0,1E0,4.6E1,-2.807921E-2,-3.0758908E-1,-4.498346E-3,3.4069607E-1],"split_indices":[17,9,1,0,0,0,0],"split_type":[0,0,0,0,0,0,0],"sum_hessian":[2.5768286E1,1.7469416E1,8.298871E0,1.6402824E1,1.0665911E0,6.4760222E0,1.8228487E0],"tree_param":{"num_deleted":"0","num_feature":"20","num_nodes":"7","size_leaf_vector":"1"}},{"base_weights":[-1.4627753E-3,-1.5064055E-1,1.4988418E-1,-1.4940798E-1,1.04971774E-1],"categories":[],"categories_nodes":[],"categories_segments":[],"categories_sizes":[],"default_left":[0,0,0,0,0],"id":22,"left_children":[1,3,-1,-1,-1],"loss_changes":[1.3973287E0,1.6194668E0,0E0,0E0,0E0],"parents":[2147483647,0,0,1,1],"right_children":[2,4,-1,-1,-1],"split_conditions":[1E0,1E0,1.4988418E-1,-1.4940798E-1,1.04971774E-1],"split_indices":[12,18,0,0,0],"split_type":[0,0,0,0,0],"sum_hessian":[2.5027256E1,1.82201E1,6.807154E0,1.2387677E1,5.8324246E0],"tree_param":{"num_deleted":"0","num_feature":"20","num_nodes":"5","size_leaf_vector":"1"}},{"base_weights":[1.9547919E-2,-1.5577757E-1,9.541079E-2,-2.7685283E-2,2.0388548E-1],"categories":[],"categories_nodes":[],"categories_segments":[],"categories_sizes":[],"default_left":[0,0,0,0,0],"id":23,"left_children":[1,-1,3,-1,-1],"loss_changes":[7.854929E-1,0E0,1.5181572E0,0E0,0E0],"parents":[2147483647,0,0,2,2],"right_children":[2,-1,4,-1,-1],"split_conditions":[0E0,-1.5577757E-1,1E0,-2.7685283E-2,2.0388548E-1],"split_indices":[4,0,5,0,0],"split_type":[0,0,0,0,0],"sum_hessian":[2.5850077E1,3.391308E0,2.2458769E1,1.6180307E1,6.2784605E0],"tree_param":{"num_deleted":"0","num_feature":"20","num_nodes":"5","size_leaf_vector":"1"}},{"base_weights":[-0E0],"categories":[],"categories_nodes":[],"categories_segments":[],"categories_sizes":[],"default_left":[0],"id":24,"left_children":[-1],"loss_changes":[0E0],"parents":[2147483647],"right_children":[-1],"split_conditions":[-0E0],"split_indices":[0],"split_type":[0],"sum_hessian":[2.4705284E1],"tree_param":{"num_deleted":"0","num_feature":"20","num_nodes":"1","size_leaf_vector":"1"}},{"base_weights":[1.1458045E-2],"categories":[],"categories_nodes":[],"categories_segments":[],"categories_sizes":[],"default_left":[0],"id":25,"left_children":[-1],"loss_changes":[0E0],"parents":[2147483647],"right_children":[-1],"split_conditions":[4.881764E-3],"split_indices":[0],"split_type":[0],"sum_hessian":[2.4747416E1],"tree_param":{"num_deleted":"0","num_feature":"20","num_nodes":"1","size_leaf_vector":"1"}},{"base_weights":[4.7923443E-3],"categories":[],"categories_nodes":[],"categories_segments":[],"categories_sizes":[],"default_left":[0],"id":26,"left_children":[-1],"loss_changes":[0E0],"parents":[2147483647],"right_children":[-1],"split_conditions":[2.0418048E-3],"split_indices":[0],"split_type":[0],"sum_hessian":[2.4793612E1],"tree_param":{"num_deleted":"0","num_feature":"20","num_nodes":"1","size_leaf_vector":"1"}},{"base_weights":[-0E0,-1.7481151E-1,1.2442359E-1,-2.6263532E-1,1.4250009E-1,-4.5194503E-2,1.4146656E-1],"categories":[],"categories_nodes":[],"categories_segments":[],"categories_sizes":[],"default_left":[0,0,0,0,0,0,0],"id":27,"left_children":[1,3,5,-1,-1,-1,-1],"loss_changes":[5.7270765E-1,2.6918051E0,7.9793805E-1,0E0,0E0,0E0,0E0],"parents":[2147483647,0,0,1,1,2,2],"right_children":[2,4,6,-1,-1,-1,-1],"split_conditions":[1E0,1E0,3E1,-2.6263532E-1,1.4250009E-1,-4.5194503E-2,1.4146656E-1],"split_indices":[10,0,1,0,0,0,0],"split_type":[0,0,0,0,0,0,0],"sum_hessian":[2.4411152E1,9.969488E0,1.4441663E1,5.3542266E0,4.6152616E0,6.79903E0,7.642633E0],"tree_param":{"num_deleted":"0","num_feature":"20","num_nodes":"7","size_leaf_vector":"1"}},{"base_weights":[-1.4652648E-2,-2.2182277E-1,4.1133597E-2,-2.2356513E-1,4.6144143E-2],"categories":[],"categories_nodes":[],"categories_segments":[],"categories_sizes":[],"default_left":[0,0,0,0,0],"id":28,"left_children":[1,3,-1,-1,-1],"loss_changes":[6.06569E-1,1.0360584E0,0E0,0E0,0E0],"parents":[2147483647,0,0,1,1],"right_children":[2,4,-1,-1,-1],"split_conditions":[1.4E1,1E0,4.1133597E-2,-2.2356513E-1,4.6144143E-2],"split_indices":[2,15,0,0,0],"split_type":[0,0,0,0,0],"sum_hessian":[2.3826674E1,8.355859E0,1.5470814E1,4.2464213E0,4.109438E0],"tree_param":{"num_deleted":"0","num_feature":"20","num_nodes":"5","size_leaf_vector":"1"}},{"base_weights":[1.7618084E-2],"categories":[],"categories_nodes":[],"categories_segments":[],"categories_sizes":[],"default_left":[0],"id":29,"left_children":[-1],"loss_changes":[0E0],"parents":[2147483647],"right_children":[-1],"split_conditions":[7.5062825E-3],"split_indices":[0],"split_type":[0],"sum_hessian":[2.35527E1],"tree_param":{"num_deleted":"0","num_feature":"20","num_nodes":"1","size_leaf_vector":"1"}},{"base_weights":[-1.0370258E-2],"categories":[],"categories_nodes":[],"categories_segments":[],"categories_sizes":[],"default_left":[0],"id":30,"left_children":[-1],"loss_changes":[0E0],"parents":[2147483647],"right_children":[-1],"split_conditions":[-4.418306E-3],"split_indices":[0],"split_type":[0],"sum_hessian":[2.3656012E1],"tree_param":{"num_deleted":"0","num_feature":"20","num_nodes":"1","size_leaf_vector":"1"}},{"base_weights":[1.6738981E-2],"categories":[],"categories_nodes":[],"categories_segments":[],"categories_sizes":[],"default_left":[0],"id":31,"left_children":[-1],"loss_changes":[0E0],"parents":[2147483647],"right_children":[-1],"split_conditions":[7.131736E-3],"split_indices":[0],"split_type":[0],"sum_hessian":[2.3372114E1],"tree_param":{"num_deleted":"0","num_feature":"20","num_nodes":"1","size_leaf_vector":"1"}},{"base_weights":[2.7847094E-2,-1.8327284E-1,1.2571867E-1,1.1358399E-1,-1.3705206E-1,9.820313E-2,-7.517728E-2],"categories":[],"categories_nodes":[],"categories_segments":[],"categories_sizes":[],"default_left":[0,0,0,0,0,0,0],"id":32,"left_children":[1,3,5,-1,-1,-1,-1],"loss_changes":[5.230768E-1,5.7456124E-1,6.0722995E-1,0E0,0E0,0E0,0E0],"parents":[2147483647,0,0,1,1,2,2],"right_children":[2,4,6,-1,-1,-1,-1],"split_conditions":[0E0,2.3E1,4.2E1,1.1358399E-1,-1.3705206E-1,9.820313E-2,-7.517728E-2],"split_indices":[3,1,1,0,0,0,0],"split_type":[0,0,0,0,0,0,0],"sum_hessian":[2.359957E1,6.82738E0,1.6772188E1,1.1958362E0,5.6315436E0,1.2913069E1,3.8591204E0],"tree_param":{"num_deleted":"0","num_feature":"20","num_nodes":"7","size_leaf_vector":"1"}},{"base_weights":[-0E0,-1.9817941E-1,1.4929476E-1,4.235911E-3,-1.9301403E-1,-1.0918124E-1,1.5757613E-1],"categories":[],"categories_nodes":[],"categories_segments":[],"categories_sizes":[],"default_left":[0,0,0,0,0,0,0],"id":33,"left_children":[1,3,5,-1,-1,-1,-1],"loss_changes":[7.3029137E-1,6.08333E-1,1.3956747E0,0E0,0E0,0E0,0E0],"parents":[2147483647,0,0,1,1,2,2],"right_children":[2,4,6,-1,-1,-1,-1],"split_conditions":[1E0,3.6E1,2.8E1,4.235911E-3,-1.9301403E-1,-1.0918124E-1,1.5757613E-1],"split_indices":[16,1,1,0,0,0,0],"split_type":[0,0,0,0,0,0,0],"sum_hessian":[2.2903328E1,9.438871E0,1.34644575E1,5.4526677E0,3.986204E0,4.500046E0,8.964412E0],"tree_param":{"num_deleted":"0","num_feature":"20","num_nodes":"7","size_leaf_vector":"1"}},{"base_weights":[-0E0],"categories":[],"categories_nodes":[],"categories_segments":[],"categories_sizes":[],"default_left":[0],"id":34,"left_children":[-1],"loss_changes":[0E0],"parents":[2147483647],"right_children":[-1],"split_conditions":[-0E0],"split_indices":[0],"split_type":[0],"sum_hessian":[2.3004507E1],"tree_param":{"num_deleted":"0","num_feature":"20","num_nodes":"1","size_leaf_vector":"1"}},{"base_weights":[-9.610009E-3],"categories":[],"categories_nodes":[],"categories_segments":[],"categories_sizes":[],"default_left":[0],"id":35,"left_children":[-1],"loss_changes":[0E0],"parents":[2147483647],"right_children":[-1],"split_conditions":[-4.0943976E-3],"split_indices":[0],"split_type":[0],"sum_hessian":[2.3361015E1],"tree_param":{"num_deleted":"0","num_feature":"20","num_nodes":"1","size_leaf_vector":"1"}},{"base_weights":[-2.240837E-2],"categories":[],"categories_nodes":[],"categories_segments":[],"categories_sizes":[],"default_left":[0],"id":36,"left_children":[-1],"loss_changes":[0E0],"parents":[2147483647],"right_children":[-1],"split_conditions":[-9.54721E-3],"split_indices":[0],"split_type":[0],"sum_hessian":[2.3374187E1],"tree_param":{"num_deleted":"0","num_feature":"20","num_nodes":"1","size_leaf_vector":"1"}},{"base_weights":[1.4062006E-2,-7.248446E-2,2.5429222E-1,-7.570117E-2,8.666259E-2,2.3162583E-1,-2.4684602E-2],"categories":[],"categories_nodes":[],"categories_segments":[],"categories_sizes":[],"default_left":[0,0,0,0,0,0,0],"id":37,"left_children":[1,3,5,-1,-1,-1,-1],"loss_changes":[5.4275936E-1,5.600166E-1,7.1899146E-1,0E0,0E0,0E0,0E0],"parents":[2147483647,0,0,1,1,2,2],"right_children":[2,4,6,-1,-1,-1,-1],"split_conditions":[1E0,1E0,1E0,-7.570117E-2,8.666259E-2,2.3162583E-1,-2.4684602E-2],"split_indices":[12,8,14,0,0,0,0],"split_type":[0,0,0,0,0,0,0],"sum_hessian":[2.3254414E1,1.7231424E1,6.02299E0,1.3032492E1,4.1989326E0,2.9499047E0,3.0730855E0],"tree_param":{"num_deleted":"0","num_feature":"20","num_nodes":"7","size_leaf_vector":"1"}},{"base_weights":[-1.586316E-2],"categories":[],"categories_nodes":[],"categories_segments":[],"categories_sizes":[],"default_left":[0],"id":38,"left_children":[-1],"loss_changes":[0E0],"parents":[2147483647],"right_children":[-1],"split_conditions":[-6.7585874E-3],"split_indices":[0],"split_type":[0],"sum_hessian":[2.3010084E1],"tree_param":{"num_deleted":"0","num_feature":"20","num_nodes":"1","size_leaf_vector":"1"}},{"base_weights":[-1.0742659E-2],"categories":[],"categories_nodes":[],"categories_segments":[],"categories_sizes":[],"default_left":[0],"id":39,"left_children":[-1],"loss_changes":[0E0],"parents":[2147483647],"right_children":[-1],"split_conditions":[-4.5769694E-3],"split_indices":[0],"split_type":[0],"sum_hessian":[2.3067339E1],"tree_param":{"num_deleted":"0","num_feature":"20","num_nodes":"1","size_leaf_vector":"1"}},{"base_weights":[2.5452863E-2],"categories":[],"categories_nodes":[],"categories_segments":[],"categories_sizes":[],"default_left":[0],"id":40,"left_children":[-1],"loss_changes":[0E0],"parents":[2147483647],"right_children":[-1],"split_conditions":[1.0844334E-2],"split_indices":[0],"split_type":[0],"sum_hessian":[2.2674551E1],"tree_param":{"num_deleted":"0","num_feature":"20","num_nodes":"1","size_leaf_vector":"1"}},{"base_weights":[-1.0250582E-2],"categories":[],"categories_nodes":[],"categories_segments":[],"categories_sizes":[],"default_left":[0],"id":41,"left_children":[-1],"loss_changes":[0E0],"parents":[2147483647],"right_children":[-1],"split_conditions":[-4.3673175E-3],"split_indices":[0],"split_type":[0],"sum_hessian":[2.3241726E1],"tree_param":{"num_deleted":"0","num_feature":"20","num_nodes":"1","size_leaf_vector":"1"}},{"base_weights":[-1.2590494E-2],"categories":[],"categories_nodes":[],"categories_segments":[],"categories_sizes":[],"default_left":[0],"id":42,"left_children":[-1],"loss_changes":[0E0],"parents":[2147483647],"right_children":[-1],"split_conditions":[-5.36425E-3],"split_indices":[0],"split_type":[0],"sum_hessian":[2.2704779E1],"tree_param":{"num_deleted":"0","num_feature":"20","num_nodes":"1","size_leaf_vector":"1"}},{"base_weights":[-1.7723095E-2],"categories":[],"categories_nodes":[],"categories_segments":[],"categories_sizes":[],"default_left":[0],"id":43,"left_children":[-1],"loss_changes":[0E0],"parents":[2147483647],"right_children":[-1],"split_conditions":[-7.551023E-3],"split_indices":[0],"split_type":[0],"sum_hessian":[2.254895E1],"tree_param":{"num_deleted":"0","num_feature":"20","num_nodes":"1","size_leaf_vector":"1"}},{"base_weights":[-1.18472185E-2],"categories":[],"categories_nodes":[],"categories_segments":[],"categories_sizes":[],"default_left":[0],"id":44,"left_children":[-1],"loss_changes":[0E0],"parents":[2147483647],"right_children":[-1],"split_conditions":[-5.0475732E-3],"split_indices":[0],"split_type":[0],"sum_hessian":[2.2903624E1],"tree_param":{"num_deleted":"0","num_feature":"20","num_nodes":"1","size_leaf_vector":"1"}},{"base_weights":[1.6169917E-2],"categories":[],"categories_nodes":[],"categories_segments":[],"categories_sizes":[],"default_left":[0],"id":45,"left_children":[-1],"loss_changes":[0E0],"parents":[2147483647],"right_children":[-1],"split_conditions":[6.8892827E-3],"split_indices":[0],"split_type":[0],"sum_hessian":[2.2990545E1],"tree_param":{"num_deleted":"0","num_feature":"20","num_nodes":"1","size_leaf_vector":"1"}},{"base_weights":[-3.1131998E-4],"categories":[],"categories_nodes":[],"categories_segments":[],"categories_sizes":[],"default_left":[0],"id":46,"left_children":[-1],"loss_changes":[0E0],"parents":[2147483647],"right_children":[-1],"split_conditions":[-1.326396E-4],"split_indices":[0],"split_type":[0],"sum_hessian":[2.2727413E1],"tree_param":{"num_deleted":"0","num_feature":"20","num_nodes":"1","size_leaf_vector":"1"}},{"base_weights":[-6.366026E-4],"categories":[],"categories_nodes":[],"categories_segments":[],"categories_sizes":[],"default_left":[0],"id":47,"left_children":[-1],"loss_changes":[0E0],"parents":[2147483647],"right_children":[-1],"split_conditions":[-2.7122805E-4],"split_indices":[0],"split_type":[0],"sum_hessian":[2.3293503E1],"tree_param":{"num_deleted":"0","num_feature":"20","num_nodes":"1","size_leaf_vector":"1"}},{"base_weights":[2.5507333E-3],"categories":[],"categories_nodes":[],"categories_segments":[],"categories_sizes":[],"default_left":[0],"id":48,"left_children":[-1],"loss_changes":[0E0],"parents":[2147483647],"right_children":[-1],"split_conditions":[1.086754E-3],"split_indices":[0],"split_type":[0],"sum_hessian":[2.303645E1],"tree_param":{"num_deleted":"0","num_feature":"20","num_nodes":"1","size_leaf_vector":"1"}},{"base_weights":[-2.2957362E-2],"categories":[],"categories_nodes":[],"categories_segments":[],"categories_sizes":[],"default_left":[0],"id":49,"left_children":[-1],"loss_changes":[0E0],"parents":[2147483647],"right_children":[-1],"split_conditions":[-9.781112E-3],"split_indices":[0],"split_type":[0],"sum_hessian":[2.2790594E1],"tree_param":{"num_deleted":"0","num_feature":"20","num_nodes":"1","size_leaf_vector":"1"}},{"base_weights":[-8.237258E-3],"categories":[],"categories_nodes":[],"categories_segments":[],"categories_sizes":[],"default_left":[0],"id":50,"left_children":[-1],"loss_changes":[0E0],"parents":[2147483647],"right_children":[-1],"split_conditions":[-3.5095294E-3],"split_indices":[0],"split_type":[0],"sum_hessian":[2.2745136E1],"tree_param":{"num_deleted":"0","num_feature":"20","num_nodes":"1","size_leaf_vector":"1"}},{"base_weights":[-1.31122125E-2],"categories":[],"categories_nodes":[],"categories_segments":[],"categories_sizes":[],"default_left":[0],"id":51,"left_children":[-1],"loss_changes":[0E0],"parents":[2147483647],"right_children":[-1],"split_conditions":[-5.586531E-3],"split_indices":[0],"split_type":[0],"sum_hessian":[2.2929705E1],"tree_param":{"num_deleted":"0","num_feature":"20","num_nodes":"1","size_leaf_vector":"1"}},{"base_weights":[1.5224109E-2],"categories":[],"categories_nodes":[],"categories_segments":[],"categories_sizes":[],"default_left":[0],"id":52,"left_children":[-1],"loss_changes":[0E0],"parents":[2147483647],"right_children":[-1],"split_conditions":[6.486316E-3],"split_indices":[0],"split_type":[0],"sum_hessian":[2.2951937E1],"tree_param":{"num_deleted":"0","num_feature":"20","num_nodes":"1","size_leaf_vector":"1"}},{"base_weights":[4.9182563E-3],"categories":[],"categories_nodes":[],"categories_segments":[],"categories_sizes":[],"default_left":[0],"id":53,"left_children":[-1],"loss_changes":[0E0],"parents":[2147483647],"right_children":[-1],"split_conditions":[2.0954504E-3],"split_indices":[0],"split_type":[0],"sum_hessian":[2.3200901E1],"tree_param":{"num_deleted":"0","num_feature":"20","num_nodes":"1","size_leaf_vector":"1"}},{"base_weights":[-7.156214E-3],"categories":[],"categories_nodes":[],"categories_segments":[],"categories_sizes":[],"default_left":[0],"id":54,"left_children":[-1],"loss_changes":[0E0],"parents":[2147483647],"right_children":[-1],"split_conditions":[-3.0489448E-3],"split_indices":[0],"split_type":[0],"sum_hessian":[2.2755426E1],"tree_param":{"num_deleted":"0","num_feature":"20","num_nodes":"1","size_leaf_vector":"1"}},{"base_weights":[-0E0],"categories":[],"categories_nodes":[],"categories_segments":[],"categories_sizes":[],"default_left":[0],"id":55,"left_children":[-1],"loss_changes":[0E0],"parents":[2147483647],"right_children":[-1],"split_conditions":[-0E0],"split_indices":[0],"split_type":[0],"sum_hessian":[2.2932314E1],"tree_param":{"num_deleted":"0","num_feature":"20","num_nodes":"1","size_leaf_vector":"1"}},{"base_weights":[2.9966072E-3],"categories":[],"categories_nodes":[],"categories_segments":[],"categories_sizes":[],"default_left":[0],"id":56,"left_children":[-1],"loss_changes":[0E0],"parents":[2147483647],"right_children":[-1],"split_conditions":[1.2767211E-3],"split_indices":[0],"split_type":[0],"sum_hessian":[2.3260063E1],"tree_param":{"num_deleted":"0","num_feature":"20","num_nodes":"1","size_leaf_vector":"1"}},{"base_weights":[3.499743E-3,-1.540558E-1,7.049099E-2,-2.4438813E-2,1.5113421E-1],"categories":[],"categories_nodes":[],"categories_segments":[],"categories_sizes":[],"default_left":[0,0,0,0,0],"id":57,"left_children":[1,-1,3,-1,-1],"loss_changes":[5.724513E-1,0E0,8.246804E-1,0E0,0E0],"parents":[2147483647,0,0,2,2],"right_children":[2,-1,4,-1,-1],"split_conditions":[0E0,-1.540558E-1,1E0,-2.4438813E-2,1.5113421E-1],"split_indices":[4,0,17,0,0],"split_type":[0,0,0,0,0],"sum_hessian":[2.283319E1,2.6093006E0,2.022389E1,1.4195778E1,6.0281115E0],"tree_param":{"num_deleted":"0","num_feature":"20","num_nodes":"5","size_leaf_vector":"1"}},{"base_weights":[6.023128E-3,-1.9731504E-1,1.2954292E-1,-2.6780742E-1,-1.7127156E-2,-3.672913E-2,1.2094505E-1],"categories":[],"categories_nodes":[],"categories_segments":[],"categories_sizes":[],"default_left":[0,0,0,0,0,0,0],"id":58,"left_children":[1,3,5,-1,-1,-1,-1],"loss_changes":[6.026162E-1,4.9579307E-1,5.6148535E-1,0E0,0E0,0E0,0E0],"parents":[2147483647,0,0,1,1,2,2],"right_children":[2,4,6,-1,-1,-1,-1],"split_conditions":[1.4E1,2.7E1,1E0,-2.6780742E-1,-1.7127156E-2,-3.672913E-2,1.2094505E-1],"split_indices":[2,1,16,0,0,0,0],"split_type":[0,0,0,0,0,0,0],"sum_hessian":[2.2361353E1,7.8724003E0,1.4488953E1,1.128233E0,6.7441673E0,5.9020877E0,8.586865E0],"tree_param":{"num_deleted":"0","num_feature":"20","num_nodes":"7","size_leaf_vector":"1"}},{"base_weights":[-5.124989E-3],"categories":[],"categories_nodes":[],"categories_segments":[],"categories_sizes":[],"default_left":[0],"id":59,"left_children":[-1],"loss_changes":[0E0],"parents":[2147483647],"right_children":[-1],"split_conditions":[-2.18353E-3],"split_indices":[0],"split_type":[0],"sum_hessian":[2.2247385E1],"tree_param":{"num_deleted":"0","num_feature":"20","num_nodes":"1","size_leaf_vector":"1"}},{"base_weights":[-5.723302E-2],"categories":[],"categories_nodes":[],"categories_segments":[],"categories_sizes":[],"default_left":[0],"id":60,"left_children":[-1],"loss_changes":[0E0],"parents":[2147483647],"right_children":[-1],"split_conditions":[-2.4384446E-2],"split_indices":[0],"split_type":[0],"sum_hessian":[2.1825508E1],"tree_param":{"num_deleted":"0","num_feature":"20","num_nodes":"1","size_leaf_vector":"1"}},{"base_weights":[-5.1918896E-3],"categories":[],"categories_nodes":[],"categories_segments":[],"categories_sizes":[],"default_left":[0],"id":61,"left_children":[-1],"loss_changes":[0E0],"parents":[2147483647],"right_children":[-1],"split_conditions":[-2.2120334E-3],"split_indices":[0],"split_type":[0],"sum_hessian":[2.2401295E1],"tree_param":{"num_deleted":"0","num_feature":"20","num_nodes":"1","size_leaf_vector":"1"}},{"base_weights":[1.326993E-2],"categories":[],"categories_nodes":[],"categories_segments":[],"categories_sizes":[],"default_left":[0],"id":62,"left_children":[-1],"loss_changes":[0E0],"parents":[2147483647],"right_children":[-1],"split_conditions":[5.6537273E-3],"split_indices":[0],"split_type":[0],"sum_hessian":[2.2531761E1],"tree_param":{"num_deleted":"0","num_feature":"20","num_nodes":"1","size_leaf_vector":"1"}},{"base_weights":[-6.9276895E-4],"categories":[],"categories_nodes":[],"categories_segments":[],"categories_sizes":[],"default_left":[0],"id":63,"left_children":[-1],"loss_changes":[0E0],"parents":[2147483647],"right_children":[-1],"split_conditions":[-2.9515807E-4],"split_indices":[0],"split_type":[0],"sum_hessian":[2.1791605E1],"tree_param":{"num_deleted":"0","num_feature":"20","num_nodes":"1","size_leaf_vector":"1"}},{"base_weights":[7.864451E-3],"categories":[],"categories_nodes":[],"categories_segments":[],"categories_sizes":[],"default_left":[0],"id":64,"left_children":[-1],"loss_changes":[0E0],"parents":[2147483647],"right_children":[-1],"split_conditions":[3.350693E-3],"split_indices":[0],"split_type":[0],"sum_hessian":[2.193825E1],"tree_param":{"num_deleted":"0","num_feature":"20","num_nodes":"1","size_leaf_vector":"1"}},{"base_weights":[-0E0],"categories":[],"categories_nodes":[],"categories_segments":[],"categories_sizes":[],"default_left":[0],"id":65,"left_children":[-1],"loss_changes":[0E0],"parents":[2147483647],"right_children":[-1],"split_conditions":[-0E0],"split_indices":[0],"split_type":[0],"sum_hessian":[2.2715517E1],"tree_param":{"num_deleted":"0","num_feature":"20","num_nodes":"1","size_leaf_vector":"1"}},{"base_weights":[1.6575918E-2],"categories":[],"categories_nodes":[],"categories_segments":[],"categories_sizes":[],"default_left":[0],"id":66,"left_children":[-1],"loss_changes":[0E0],"parents":[2147483647],"right_children":[-1],"split_conditions":[7.062262E-3],"split_indices":[0],"split_type":[0],"sum_hessian":[2.2328526E1],"tree_param":{"num_deleted":"0","num_feature":"20","num_nodes":"1","size_leaf_vector":"1"}},{"base_weights":[-0E0],"categories":[],"categories_nodes":[],"categories_segments":[],"categories_sizes":[],"default_left":[0],"id":67,"left_children":[-1],"loss_changes":[0E0],"parents":[2147483647],"right_children":[-1],"split_conditions":[-0E0],"split_indices":[0],"split_type":[0],"sum_hessian":[2.2688175E1],"tree_param":{"num_deleted":"0","num_feature":"20","num_nodes":"1","size_leaf_vector":"1"}},{"base_weights":[3.2089495E-3],"categories":[],"categories_nodes":[],"categories_segments":[],"categories_sizes":[],"default_left":[0],"id":68,"left_children":[-1],"loss_changes":[0E0],"parents":[2147483647],"right_children":[-1],"split_conditions":[1.3671907E-3],"split_indices":[0],"split_type":[0],"sum_hessian":[2.2510105E1],"tree_param":{"num_deleted":"0","num_feature":"20","num_nodes":"1","size_leaf_vector":"1"}},{"base_weights":[-3.7499703E-3],"categories":[],"categories_nodes":[],"categories_segments":[],"categories_sizes":[],"default_left":[0],"id":69,"left_children":[-1],"loss_changes":[0E0],"parents":[2147483647],"right_children":[-1],"split_conditions":[-1.5976956E-3],"split_indices":[0],"split_type":[0],"sum_hessian":[2.2310703E1],"tree_param":{"num_deleted":"0","num_feature":"20","num_nodes":"1","size_leaf_vector":"1"}},{"base_weights":[2.2268131E-2],"categories":[],"categories_nodes":[],"categories_segments":[],"categories_sizes":[],"default_left":[0],"id":70,"left_children":[-1],"loss_changes":[0E0],"parents":[2147483647],"right_children":[-1],"split_conditions":[9.487461E-3],"split_indices":[0],"split_type":[0],"sum_hessian":[2.200763E1],"tree_param":{"num_deleted":"0","num_feature":"20","num_nodes":"1","size_leaf_vector":"1"}},{"base_weights":[-0E0,-1.07275076E-1,9.356176E-2,-1.8354018E-1,5.313968E-2],"categories":[],"categories_nodes":[],"categories_segments":[],"categories_sizes":[],"default_left":[0,0,0,0,0],"id":71,"left_children":[1,3,-1,-1,-1],"loss_changes":[5.581892E-1,1.3119186E0,0E0,0E0,0E0],"parents":[2147483647,0,0,1,1],"right_children":[2,4,-1,-1,-1],"split_conditions":[1E0,1E0,9.356176E-2,-1.8354018E-1,5.313968E-2],"split_indices":[18,15,0,0,0],"split_type":[0,0,0,0,0],"sum_hessian":[2.2059383E1,1.5342177E1,6.717206E0,6.2734327E0,9.068746E0],"tree_param":{"num_deleted":"0","num_feature":"20","num_nodes":"5","size_leaf_vector":"1"}},{"base_weights":[-2.6789565E-2],"categories":[],"categories_nodes":[],"categories_segments":[],"categories_sizes":[],"default_left":[0],"id":72,"left_children":[-1],"loss_changes":[0E0],"parents":[2147483647],"right_children":[-1],"split_conditions":[-1.1413842E-2],"split_indices":[0],"split_type":[0],"sum_hessian":[2.1764347E1],"tree_param":{"num_deleted":"0","num_feature":"20","num_nodes":"1","size_leaf_vector":"1"}},{"base_weights":[-7.826564E-3],"categories":[],"categories_nodes":[],"categories_segments":[],"categories_sizes":[],"default_left":[0],"id":73,"left_children":[-1],"loss_changes":[0E0],"parents":[2147483647],"right_children":[-1],"split_conditions":[-3.334551E-3],"split_indices":[0],"split_type":[0],"sum_hessian":[2.2137295E1],"tree_param":{"num_deleted":"0","num_feature":"20","num_nodes":"1","size_leaf_vector":"1"}},{"base_weights":[-5.653748E-4],"categories":[],"categories_nodes":[],"categories_segments":[],"categories_sizes":[],"default_left":[0],"id":74,"left_children":[-1],"loss_changes":[0E0],"parents":[2147483647],"right_children":[-1],"split_conditions":[-2.4088107E-4],"split_indices":[0],"split_type":[0],"sum_hessian":[2.2162132E1],"tree_param":{"num_deleted":"0","num_feature":"20","num_nodes":"1","size_leaf_vector":"1"}},{"base_weights":[-0E0],"categories":[],"categories_nodes":[],"categories_segments":[],"categories_sizes":[],"default_left":[0],"id":75,"left_children":[-1],"loss_changes":[0E0],"parents":[2147483647],"right_children":[-1],"split_conditions":[-0E0],"split_indices":[0],"split_type":[0],"sum_hessian":[2.2472027E1],"tree_param":{"num_deleted":"0","num_feature":"20","num_nodes":"1","size_leaf_vector":"1"}},{"base_weights":[7.2289254E-3],"categories":[],"categories_nodes":[],"categories_segments":[],"categories_sizes":[],"default_left":[0],"id":76,"left_children":[-1],"loss_changes":[0E0],"parents":[2147483647],"right_children":[-1],"split_conditions":[3.0799238E-3],"split_indices":[0],"split_type":[0],"sum_hessian":[2.2034325E1],"tree_param":{"num_deleted":"0","num_feature":"20","num_nodes":"1","size_leaf_vector":"1"}},{"base_weights":[1.693181E-3],"categories":[],"categories_nodes":[],"categories_segments":[],"categories_sizes":[],"default_left":[0],"id":77,"left_children":[-1],"loss_changes":[0E0],"parents":[2147483647],"right_children":[-1],"split_conditions":[7.2138914E-4],"split_indices":[0],"split_type":[0],"sum_hessian":[2.2142323E1],"tree_param":{"num_deleted":"0","num_feature":"20","num_nodes":"1","size_leaf_vector":"1"}},{"base_weights":[1.746835E-2],"categories":[],"categories_nodes":[],"categories_segments":[],"categories_sizes":[],"default_left":[0],"id":78,"left_children":[-1],"loss_changes":[0E0],"parents":[2147483647],"right_children":[-1],"split_conditions":[7.4424874E-3],"split_indices":[0],"split_type":[0],"sum_hessian":[2.1887009E1],"tree_param":{"num_deleted":"0","num_feature":"20","num_nodes":"1","size_leaf_vector":"1"}},{"base_weights":[4.7945898E-2],"categories":[],"categories_nodes":[],"categories_segments":[],"categories_sizes":[],"default_left":[0],"id":79,"left_children":[-1],"loss_changes":[0E0],"parents":[2147483647],"right_children":[-1],"split_conditions":[2.0427616E-2],"split_indices":[0],"split_type":[0],"sum_hessian":[2.1780464E1],"tree_param":{"num_deleted":"0","num_feature":"20","num_nodes":"1","size_leaf_vector":"1"}},{"base_weights":[3.8675498E-3,-2.3082959E-2,3.890588E-1,-4.2499673E-2,2.9461867E-1],"categories":[],"categories_nodes":[],"categories_segments":[],"categories_sizes":[],"default_left":[0,0,0,0,0],"id":80,"left_children":[1,-1,3,-1,-1],"loss_changes":[5.7791066E-1,0E0,6.416068E-1,0E0,0E0],"parents":[2147483647,0,0,2,2],"right_children":[2,-1,4,-1,-1],"split_conditions":[4.9E1,-2.3082959E-2,1E0,-4.2499673E-2,2.9461867E-1],"split_indices":[1,0,10,0,0],"split_type":[0,0,0,0,0],"sum_hessian":[2.220873E1,1.9756332E1,2.452399E0,1.0361862E0,1.4162127E0],"tree_param":{"num_deleted":"0","num_feature":"20","num_nodes":"5","size_leaf_vector":"1"}},{"base_weights":[-3.6366355E-2],"categories":[],"categories_nodes":[],"categories_segments":[],"categories_sizes":[],"default_left":[0],"id":81,"left_children":[-1],"loss_changes":[0E0],"parents":[2147483647],"right_children":[-1],"split_conditions":[-1.5494088E-2],"split_indices":[0],"split_type":[0],"sum_hessian":[2.173515E1],"tree_param":{"num_deleted":"0","num_feature":"20","num_nodes":"1","size_leaf_vector":"1"}},{"base_weights":[-3.484533E-2],"categories":[],"categories_nodes":[],"categories_segments":[],"categories_sizes":[],"default_left":[0],"id":82,"left_children":[-1],"loss_changes":[0E0],"parents":[2147483647],"right_children":[-1],"split_conditions":[-1.4846046E-2],"split_indices":[0],"split_type":[0],"sum_hessian":[2.1412054E1],"tree_param":{"num_deleted":"0","num_feature":"20","num_nodes":"1","size_leaf_vector":"1"}},{"base_weights":[1.2181836E-2],"categories":[],"categories_nodes":[],"categories_segments":[],"categories_sizes":[],"default_left":[0],"id":83,"left_children":[-1],"loss_changes":[0E0],"parents":[2147483647],"right_children":[-1],"split_conditions":[5.1901387E-3],"split_indices":[0],"split_type":[0],"sum_hessian":[2.1840801E1],"tree_param":{"num_deleted":"0","num_feature":"20","num_nodes":"1","size_leaf_vector":"1"}},{"base_weights":[-0E0],"categories":[],"categories_nodes":[],"categories_segments":[],"categories_sizes":[],"default_left":[0],"id":84,"left_children":[-1],"loss_changes":[0E0],"parents":[2147483647],"right_children":[-1],"split_conditions":[-0E0],"split_indices":[0],"split_type":[0],"sum_hessian":[2.2300938E1],"tree_param":{"num_deleted":"0","num_feature":"20","num_nodes":"1","size_leaf_vector":"1"}},{"base_weights":[-1.1582818E-2],"categories":[],"categories_nodes":[],"categories_segments":[],"categories_sizes":[],"default_left":[0],"id":85,"left_children":[-1],"loss_changes":[0E0],"parents":[2147483647],"right_children":[-1],"split_conditions":[-4.9349237E-3],"split_indices":[0],"split_type":[0],"sum_hessian":[2.2115551E1],"tree_param":{"num_deleted":"0","num_feature":"20","num_nodes":"1","size_leaf_vector":"1"}},{"base_weights":[7.2783697E-3,-1.0996793E-1,1.8570088E-1,2.5120914E-1,-1.1054041E-1,2.0642418E-1,-7.886582E-2],"categories":[],"categories_nodes":[],"categories_segments":[],"categories_sizes":[],"default_left":[0,0,0,0,0,0,0],"id":86,"left_children":[1,3,5,-1,-1,-1,-1],"loss_changes":[4.955881E-1,1.5394204E0,1.1864628E0,0E0,0E0,0E0,0E0],"parents":[2147483647,0,0,1,1,2,2],"right_children":[2,4,6,-1,-1,-1,-1],"split_conditions":[1E0,1.2E1,3.2E1,2.5120914E-1,-1.1054041E-1,2.0642418E-1,-7.886582E-2],"split_indices":[14,2,1,0,0,0,0],"split_type":[0,0,0,0,0,0,0],"sum_hessian":[2.135556E1,1.2712914E1,8.642645E0,1.5988941E0,1.111402E1,4.7976766E0,3.8449686E0],"tree_param":{"num_deleted":"0","num_feature":"20","num_nodes":"7","size_leaf_vector":"1"}},{"base_weights":[-0E0],"categories":[],"categories_nodes":[],"categories_segments":[],"categories_sizes":[],"default_left":[0],"id":87,"left_children":[-1],"loss_changes":[0E0],"parents":[2147483647],"right_children":[-1],"split_conditions":[-0E0],"split_indices":[0],"split_type":[0],"sum_hessian":[2.1978958E1],"tree_param":{"num_deleted":"0","num_feature":"20","num_nodes":"1","size_leaf_vector":"1"}},{"base_weights":[-0E0],"categories":[],"categories_nodes":[],"categories_segments":[],"categories_sizes":[],"default_left":[0],"id":88,"left_children":[-1],"loss_changes":[0E0],"parents":[2147483647],"right_children":[-1],"split_conditions":[-0E0],"split_indices":[0],"split_type":[0],"sum_hessian":[2.209685E1],"tree_param":{"num_deleted":"0","num_feature":"20","num_nodes":"1","size_leaf_vector":"1"}},{"base_weights":[1.0136123E-3],"categories":[],"categories_nodes":[],"categories_segments":[],"categories_sizes":[],"default_left":[0],"id":89,"left_children":[-1],"loss_changes":[0E0],"parents":[2147483647],"right_children":[-1],"split_conditions":[4.3185512E-4],"split_indices":[0],"split_type":[0],"sum_hessian":[2.2217247E1],"tree_param":{"num_deleted":"0","num_feature":"20","num_nodes":"1","size_leaf_vector":"1"}},{"base_weights":[-1.37867965E-2],"categories":[],"categories_nodes":[],"categories_segments":[],"categories_sizes":[],"default_left":[0],"id":90,"left_children":[-1],"loss_changes":[0E0],"parents":[2147483647],"right_children":[-1],"split_conditions":[-5.8739414E-3],"split_indices":[0],"split_type":[0],"sum_hessian":[2.1873163E1],"tree_param":{"num_deleted":"0","num_feature":"20","num_nodes":"1","size_leaf_vector":"1"}},{"base_weights":[4.770058E-2],"categories":[],"categories_nodes":[],"categories_segments":[],"categories_sizes":[],"default_left":[0],"id":91,"left_children":[-1],"loss_changes":[0E0],"parents":[2147483647],"right_children":[-1],"split_conditions":[2.0323098E-2],"split_indices":[0],"split_type":[0],"sum_hessian":[2.1269398E1],"tree_param":{"num_deleted":"0","num_feature":"20","num_nodes":"1","size_leaf_vector":"1"}},{"base_weights":[-0E0],"categories":[],"categories_nodes":[],"categories_segments":[],"categories_sizes":[],"default_left":[0],"id":92,"left_children":[-1],"loss_changes":[0E0],"parents":[2147483647],"right_children":[-1],"split_conditions":[-0E0],"split_indices":[0],"split_type":[0],"sum_hessian":[2.1860636E1],"tree_param":{"num_deleted":"0","num_feature":"20","num_nodes":"1","size_leaf_vector":"1"}},{"base_weights":[-0E0],"categories":[],"categories_nodes":[],"categories_segments":[],"categories_sizes":[],"default_left":[0],"id":93,"left_children":[-1],"loss_changes":[0E0],"parents":[2147483647],"right_children":[-1],"split_conditions":[-0E0],"split_indices":[0],"split_type":[0],"sum_hessian":[2.1962563E1],"tree_param":{"num_deleted":"0","num_feature":"20","num_nodes":"1","size_leaf_vector":"1"}},{"base_weights":[-2.9807854E-2],"categories":[],"categories_nodes":[],"categories_segments":[],"categories_sizes":[],"default_left":[0],"id":94,"left_children":[-1],"loss_changes":[0E0],"parents":[2147483647],"right_children":[-1],"split_conditions":[-1.26998015E-2],"split_indices":[0],"split_type":[0],"sum_hessian":[2.1697794E1],"tree_param":{"num_deleted":"0","num_feature":"20","num_nodes":"1","size_leaf_vector":"1"}},{"base_weights":[-3.596096E-4],"categories":[],"categories_nodes":[],"categories_segments":[],"categories_sizes":[],"default_left":[0],"id":95,"left_children":[-1],"loss_changes":[0E0],"parents":[2147483647],"right_children":[-1],"split_conditions":[-1.5321367E-4],"split_indices":[0],"split_type":[0],"sum_hessian":[2.2020573E1],"tree_param":{"num_deleted":"0","num_feature":"20","num_nodes":"1","size_leaf_vector":"1"}},{"base_weights":[4.2042047E-2],"categories":[],"categories_nodes":[],"categories_segments":[],"categories_sizes":[],"default_left":[0],"id":96,"left_children":[-1],"loss_changes":[0E0],"parents":[2147483647],"right_children":[-1],"split_conditions":[1.7912248E-2],"split_indices":[0],"split_type":[0],"sum_hessian":[2.1325228E1],"tree_param":{"num_deleted":"0","num_feature":"20","num_nodes":"1","size_leaf_vector":"1"}},{"base_weights":[-0E0],"categories":[],"categories_nodes":[],"categories_segments":[],"categories_sizes":[],"default_left":[0],"id":97,"left_children":[-1],"loss_changes":[0E0],"parents":[2147483647],"right_children":[-1],"split_conditions":[-0E0],"split_indices":[0],"split_type":[0],"sum_hessian":[2.1824678E1],"tree_param":{"num_deleted":"0","num_feature":"20","num_nodes":"1","size_leaf_vector":"1"}},{"base_weights":[-3.8356676E-3],"categories":[],"categories_nodes":[],"categories_segments":[],"categories_sizes":[],"default_left":[0],"id":98,"left_children":[-1],"loss_changes":[0E0],"parents":[2147483647],"right_children":[-1],"split_conditions":[-1.6342074E-3],"split_indices":[0],"split_type":[0],"sum_hessian":[2.2120104E1],"tree_param":{"num_deleted":"0","num_feature":"20","num_nodes":"1","size_leaf_vector":"1"}},{"base_weights":[-6.572038E-3],"categories":[],"categories_nodes":[],"categories_segments":[],"categories_sizes":[],"default_left":[0],"id":99,"left_children":[-1],"loss_changes":[0E0],"parents":[2147483647],"right_children":[-1],"split_conditions":[-2.8000532E-3],"split_indices":[0],"split_type":[0],"sum_hessian":[2.2142696E1],"tree_param":{"num_deleted":"0","num_feature":"20","num_nodes":"1","size_leaf_vector":"1"}}]},"name":"gbtree"},"learner_model_param":{"base_score":"4.567295E-1","boost_from_average":"1","num_class":"0","num_feature":"20","num_target":"1"},"objective":{"name":"binary:logistic","reg_loss_param":{"scale_pos_weight":"1"}}},"version":[2,0,3]}